{"layers":[{"perceptrons":[{"bias":-0.20545059854758474,"weights":[45.560820712812074,-23.12100255181269,-22.429926391072183],"dimension":3},{"bias":-2.718716368149961,"weights":[-0.23521393047689954,-2.1103913401700187,3.054488362468057],"dimension":3},{"bias":-0.2038119334701576,"weights":[-23.22318839513254,-22.500224809099997,45.71690809510239],"dimension":3},{"bias":-0.14260700272200155,"weights":[21.189437021280227,-43.2918445264751,22.070300655053433],"dimension":3},{"bias":-1.058557553787962,"weights":[5.919637278670914,-11.24232994296126,5.516756775084107],"dimension":3},{"bias":-3.989669626075107,"weights":[-2.1092603879579714,-6.8447524706459175,1.6190188693639782],"dimension":3}],"perceptronAmount":6,"inputVectorDimension":3},{"perceptrons":[{"bias":-4.266063962358975,"weights":[-0.495647859902658,0.05624336030441988,6.114679792605961,1.603809260884921,-0.22312070089243588,1.577262330769795],"dimension":6},{"bias":-5.106407317748754,"weights":[-2.4761449012498926,0.9490514153332311,10.582266578433844,2.220748643306943,0.07054401158070388,1.6181608070340245],"dimension":6},{"bias":-5.474398117669323,"weights":[-2.9546633304416408,1.0485580960553529,11.917819037605968,2.4824194166133022,0.024552870301721236,1.669053489546386],"dimension":6},{"bias":-8.082182992918423,"weights":[2.4996131503969226,0.3655178945561405,2.562498042699657,10.212817435976547,2.9154536137562124,1.683281658991831],"dimension":6},{"bias":-4.8984648058621145,"weights":[8.75098423646198,0.0052483569852595155,-1.6601757966827932,3.173590743753472,-1.0577014244741612,1.2937326597794554],"dimension":6},{"bias":-4.571835214844024,"weights":[-1.954475213478623,0.7783774981966934,9.024720819613732,1.9057041010968339,0.03489939558557309,1.532612690213456],"dimension":6},{"bias":-6.966613182657808,"weights":[16.861996497535163,-0.49816981256467396,-5.155432140598785,3.6184578408265287,0.9193828588005367,1.1370982648344516],"dimension":6},{"bias":-7.851150491164082,"weights":[2.1467620311826723,0.3608985446294064,2.196936864540698,10.471953824475714,2.95711961722734,1.5008651455053716],"dimension":6},{"bias":-7.842861233941788,"weights":[2.3738600208281677,0.3531923094333732,2.4479668703198856,9.960250226536136,2.886552601219956,1.6381594477122399],"dimension":6}],"perceptronAmount":9,"inputVectorDimension":6},{"perceptrons":[{"bias":-6.093704029527319,"weights":[-0.282136890901482,0.32578628674366245,0.5032175456106699,1.177031834634906,3.3139885680057994,-0.04983144106584463,5.329363597705199,1.1442155415875737,1.1157439893770285],"dimension":9},{"bias":-5.242497500127318,"weights":[2.971643279601803,4.668885908743044,5.311010482160404,1.8530396329309873,-2.4715973678962557,4.085640485362113,-1.9878539771151997,1.0786626149548137,1.6601711640215944],"dimension":9},{"bias":-5.296790265570099,"weights":[-0.09439360028052837,0.25516184461416264,0.3975096914572981,1.142324442871061,2.394382408211266,-0.003975362267962465,3.874364594034002,1.0943154716353272,1.093260067441776],"dimension":9},{"bias":-6.471259731307105,"weights":[0.6863943921489946,0.7417473261619912,0.7356990802012394,3.231549463380815,1.315570418806521,0.5707422310383652,0.7547152821098236,3.303312508316996,3.157567645463875],"dimension":9},{"bias":-6.489258233360144,"weights":[1.7477649497156797,3.175356654370374,3.5632653144422384,0.8967506965106108,-1.3803315719909168,2.657601100993151,-0.8896017565398994,0.5531300324992772,0.7621035908019235],"dimension":9},{"bias":-4.981012562189374,"weights":[-1.2716933681091573,-0.8328760376941473,-0.6457517424500171,0.28206985271808793,3.6728895721881583,-1.2255954346434752,7.725350857193352,0.31941003658932837,0.23538098860688167],"dimension":9},{"bias":-7.351671040734243,"weights":[0.3712456002822734,0.2695520461541439,0.24025017172171256,3.422546655052728,1.5624558713728933,0.11409233584996198,1.1839126812532565,3.45314257641653,3.331344772252446],"dimension":9},{"bias":-6.974178202263506,"weights":[0.3613776065690053,0.3477158846102885,0.4068078098745755,2.565243693914343,1.375135473744386,0.13098433358928785,1.5506383249325906,2.5969018560710637,2.468804835816174],"dimension":9},{"bias":-6.112322852511965,"weights":[0.6453460789388764,0.7925897213246949,0.8735547421610272,2.9019086747424603,0.6721109240843661,0.6174912703515161,0.5134987388809605,2.942651486749855,2.8467337206806307],"dimension":9}],"perceptronAmount":9,"inputVectorDimension":9},{"perceptrons":[{"bias":3.8080705016809215,"weights":[-2.4195044314849303,-3.1088212178889165,-2.2478337621140607,-1.7421500114222666,-2.4584407327017623,-2.579619698557437,-1.9723023333266627,-2.002015421934614,-1.5583943947627528],"dimension":9},{"bias":4.258687557485266,"weights":[-3.810986147099294,1.735494101350244,-2.1844594863000757,-0.18082902460353856,2.2388034641834516,-5.921923047912883,-1.2987988696291943,-1.9716555494386776,0.4836588622063761],"dimension":9},{"bias":5.608170084600254,"weights":[-1.4826634392116118,-0.5755079195584167,-2.0687037072223635,-2.8472537785707472,-1.4789350798205663,-0.17425435691415053,-3.1903461284269836,-2.919341374147605,-2.4878946540891262],"dimension":9},{"bias":3.85044870055433,"weights":[-2.4544572538706277,-2.9482450553961694,-2.358027937133196,-1.810953555231149,-2.331168573044612,-2.647807997973609,-2.0899157964850494,-2.135344120304933,-1.4945588987104295],"dimension":9},{"bias":10.349577934982463,"weights":[0.3677401667595307,-4.327458305048234,-0.4860143621528921,-1.6045608146096528,-4.409480140025139,0.5408449581960266,-1.3906637578830816,-1.1098093438429553,-2.4686764565100345],"dimension":9},{"bias":4.112854719495706,"weights":[-0.13266039911574282,-3.968164087989918,-0.7560067540256482,-1.965263268391403,-2.938323399507225,1.4394328594241685,-1.8044721621941429,-1.5517747842309424,-2.1503644916146682],"dimension":9},{"bias":2.2409322334293433,"weights":[-2.270283571688446,1.6188714865130684,-2.153154409045913,-1.603831192537646,0.05792715043167508,-3.2902082349274817,-2.272652488112528,-2.440721387940425,-1.125988099323984],"dimension":9},{"bias":3.9988385933181423,"weights":[-0.33818164473224677,-3.955294301696555,-0.7653644783503523,-1.8408034007291072,-2.9020427409901064,0.9379139215251608,-1.6105441184395575,-1.3894195717103879,-2.0610970289132853],"dimension":9},{"bias":5.278579371899261,"weights":[-1.3146301850554307,-0.33059830777017424,-1.6854601647682372,-1.8655408641523956,-0.4582689056564429,-0.22052695096764074,-2.528431461201314,-2.3356760060118664,-1.475487472298831],"dimension":9}],"perceptronAmount":9,"inputVectorDimension":9},{"perceptrons":[{"bias":-5.385490082265262,"weights":[-2.317446296024181,-3.272556707450446,-4.004795156519778,-2.2934361032961896,11.090567300181593,-2.9049664015623393,-0.6342872872409383,-3.131214106769275,-3.1380821600658884],"dimension":9},{"bias":-7.2363784352553235,"weights":[-4.076191652399576,-1.1343028228083005,3.130005473658846,-5.127149544512918,0.17472541440865336,4.5905363170125435,-3.01160068371968,3.3003497391652443,2.797075531749694],"dimension":9},{"bias":-9.388449564155215,"weights":[5.049066023597513,1.488726324059679,-0.43894076324006154,4.813517757131843,-1.668087111251811,2.30209177335966,1.6582469601978778,2.6491943476018496,-0.24772038488259684],"dimension":9},{"bias":-8.945095996439981,"weights":[-3.2089530226429632,2.1105166091263188,3.312231970265412,-2.9505359873095784,3.2621804240162824,-3.207921514786977,7.055128801110329,-4.311669028882912,0.9745991306585475],"dimension":9},{"bias":-5.1402546880578,"weights":[-1.5138513767726731,10.655501358516526,-4.442626549871119,-1.64746032657504,-3.830542168633489,-2.1337397562167477,-1.349346449616845,-1.7911416317799802,-4.166675489204482],"dimension":9},{"bias":5.068236931694562,"weights":[-2.1457445150008767,-10.293659967551513,-2.6048707661377466,-2.1417354449433494,-10.268162893393978,-2.7119915417012592,-3.3910296936289654,-2.5742956973242666,-2.658184071853943],"dimension":9}],"perceptronAmount":6,"inputVectorDimension":9}],"inputVectorDimension":3,"neurons":[6,9,9,9,6]}