{"layers":[{"perceptrons":[{"bias":-3.5555847472191333,"weights":[-4.9906461884942726,-0.3941881255180736,2.5423274489342633],"dimension":3},{"bias":0.03908835664314791,"weights":[-9.357269880711598,1.6081059394517097,7.651213289350355],"dimension":3},{"bias":-0.3347398022473914,"weights":[-21.815563309231194,44.31790890702831,-22.427240771245167],"dimension":3},{"bias":-0.05074857405932173,"weights":[-22.13905221660173,-21.59483937989175,43.57135612067149],"dimension":3},{"bias":-0.19199889708393822,"weights":[-43.089721978762576,22.19693605643707,21.045785424389766],"dimension":3},{"bias":-0.31076943413160246,"weights":[3.5966773911554757,-7.554201793241608,4.541346016335961],"dimension":3}],"perceptronAmount":6,"inputVectorDimension":3},{"perceptrons":[{"bias":4.523440786651206,"weights":[0.06853361223000809,-0.2339692523236121,-16.398148039902374,7.218159452627876,-6.268383170828649,3.3825991160462086],"dimension":6},{"bias":-7.945967915231664,"weights":[1.649567944400753,2.2188700801511607,2.4831312089653546,3.2803887673097263,10.422603164077339,-1.445211622154321],"dimension":6},{"bias":-8.265309424511527,"weights":[1.9108428337896788,2.785843978383538,2.9906009043684536,1.6856032796697094,11.53726409300952,-0.4689445380410851],"dimension":6},{"bias":0.5880530529833969,"weights":[0.2793238011245667,0.20243789689655098,-8.671571751631072,4.548975458807109,-2.7018093530930387,0.972543567461239],"dimension":6},{"bias":-7.544613454151084,"weights":[1.20880417112327,2.149759804239651,-5.390875506126097,13.968211089986145,4.041134577039464,1.031624388837693],"dimension":6},{"bias":-7.040118955246003,"weights":[1.2980383838759542,0.9154505174729963,-2.92767415619422,12.247369583875413,3.1187019547282033,1.4427315121290767],"dimension":6},{"bias":-5.941252274667089,"weights":[1.3742164486944102,1.4823415615082003,1.9460028331608121,2.797251619934017,7.048457019882248,-0.8526033267795167],"dimension":6},{"bias":-5.567228538427737,"weights":[1.3354015932638392,1.3002282562404692,1.7257377996576584,3.232322612286664,6.194018338750073,-0.8848843177780411],"dimension":6}],"perceptronAmount":8,"inputVectorDimension":6},{"perceptrons":[{"bias":-7.475005780922186,"weights":[1.4147798743809537,1.2017480224853576,0.21934267846404862,1.8649213602810277,5.865562792017187,4.84921006942947,1.0694385220973448,1.6411455937119364],"dimension":8},{"bias":-5.124827417037605,"weights":[5.146420576282869,-0.2789980690598638,-1.9246822364155292,2.8355181787708936,1.7568956437721666,0.952268786840652,-0.31413408571970214,-0.014392422037404904],"dimension":8},{"bias":-1.3465970311528401,"weights":[9.00439510415796,-0.8475027198229302,-4.327252200760374,6.005409620201347,3.375321768052631,1.252010315962671,-0.7893367458950421,-0.3160925425923358],"dimension":8},{"bias":-7.969916612719824,"weights":[-1.7839331618324783,3.1515407342745054,4.482804595134718,-1.578889925252953,0.05203333707833425,2.1745190349036903,2.1048550346470027,2.101481058578541],"dimension":8},{"bias":-9.0424611347711,"weights":[0.5031297865181649,0.9592177983083884,-0.09538411210637497,1.1486301222069633,5.595644903157536,4.695685042928549,0.8699527977944177,1.4306716185436186],"dimension":8},{"bias":-6.062181298501797,"weights":[-1.0583713892539628,3.8287968408865427,4.942219718371688,-1.2891366199706609,0.7846658644616678,2.0704207692162857,2.75246585452307,2.6319528725461345],"dimension":8},{"bias":-6.10454190796839,"weights":[-0.8038154264952341,3.5297358963098375,4.424872894152335,-1.0280583398623135,0.9877240376738338,2.0653191746616946,2.5167011399071817,2.45135304763972],"dimension":8}],"perceptronAmount":7,"inputVectorDimension":8},{"perceptrons":[{"bias":6.217578999202753,"weights":[-2.8596035655959806,-1.801863081540775,-1.183240288486315,-0.026601820508183403,-3.8238893369729254,-0.7767374917270131,-0.8634444328133141],"dimension":7},{"bias":7.51394288430567,"weights":[-1.4128205759426071,0.8443528416524592,1.58620398741697,-6.024902677675515,-1.5357835114221396,-3.6750984130081954,-3.437653324673782],"dimension":7},{"bias":6.183036609002602,"weights":[-2.844282182424994,-1.5215288291044722,-0.5249422023498271,-0.44019599094601014,-3.6074324882100575,-0.9310319816174543,-0.9857302323919604],"dimension":7},{"bias":3.331311147026981,"weights":[-3.4196802617788276,-3.7720245006422064,-6.534999081488812,0.6222900611464075,-3.375763106844685,-0.9047845790767851,-1.1449238225060752],"dimension":7},{"bias":5.786423671782944,"weights":[-3.5182043345934906,-1.831467695870314,-0.8723554879345857,-0.7508102585451635,-3.6374744087977273,-1.4999807607876257,-1.6125848146624437],"dimension":7},{"bias":4.865056796970366,"weights":[-0.6295806256158749,4.755575814089505,5.288824797450989,-4.623380659839389,-0.725997934070764,-2.1969386011390615,-2.0448245625447794],"dimension":7},{"bias":5.264821025280623,"weights":[-2.7523158822951275,-3.5582494293337525,-5.747245616456284,-2.671287114542196,-2.738838530689661,-2.713539637847987,-2.4943144037553875],"dimension":7},{"bias":2.873868761368784,"weights":[-3.1158056930418065,-1.0374989775113,-0.10617226642521244,-3.7016424138992017,-3.0658060773307123,-3.741349392136353,-3.3721890420744183],"dimension":7}],"perceptronAmount":8,"inputVectorDimension":7},{"perceptrons":[{"bias":-9.020376548560638,"weights":[2.9037381778748412,2.0387249827600566,3.784953550893548,-7.951989206833177,3.4302428815431423,0.37073546917829303,-5.640884442013305,2.6453799779112175],"dimension":8},{"bias":-9.380998271581225,"weights":[-0.5631168796036905,0.7912147908616992,-0.7526642070877845,5.195709532424773,-0.4759244713640744,-0.04350000202934989,7.863269194467958,3.6096750111909115],"dimension":8},{"bias":-6.161080393043762,"weights":[3.542729296935561,-2.3216568055628173,2.499925950991522,5.479030914157358,2.476281889094084,-1.7566178017426683,-4.76590135818753,-5.082942156682558],"dimension":8},{"bias":5.796165447821177,"weights":[-2.624343505690123,-2.829746814456485,-3.070114899116899,-3.3711326786396887,-3.6571300441241608,-11.158106433781791,-2.243940527754287,-2.2281271224413555],"dimension":8},{"bias":-4.660130484663433,"weights":[-3.850192960145744,-10.229181289445933,-4.090694119444227,-2.3651970747011317,-3.555212151577224,9.902114435929583,-1.3139187283123592,-1.7560731993135419],"dimension":8},{"bias":-8.476086431785253,"weights":[-3.27457952586694,11.057313592703439,-1.7739814291311535,-4.868407447116072,-3.1834595027648622,3.0494281849919465,-4.392222207008812,-4.404085775827215],"dimension":8}],"perceptronAmount":6,"inputVectorDimension":8}],"inputVectorDimension":3,"neurons":[6,8,7,8,6]}