{"layers":[{"perceptrons":[{"bias":-1.7321422207617063,"weights":[-0.30592831592232006,1.1533926342045573,0.6929844039471149,-0.08819990273059658,0.09283604259092088,0.6019760292955706,0.30311227038463834,0.21954833177557576,-0.864591418307465,0.5104708508676851,0.3097214527188334,0.2339639187979667,0.08250024566427673,0.6133657374740829,0.6991082627670521,-0.0883208177593772,-0.3401820557142873,1.1636482353617077,1.997709923057166,-3.6300512869563044],"dimension":20},{"bias":-0.14975343007116115,"weights":[-0.36319988094065264,-0.24352967100774794,-0.230796686618314,-0.2341710890453334,-0.3794896186853064,-0.22051192003553255,-0.2576629136425624,-0.056042363642575144,-0.4153631809428472,-0.008279174117861847,-0.256052946516539,-0.05255409661486313,-0.3793965974283557,-0.21842821817105487,-0.21713618128478657,-0.2250959894496386,-0.36053286892584957,-0.23437361978934848,1.2836483726145014,-1.3127890664319686],"dimension":20},{"bias":-0.14212972959672487,"weights":[-0.335107865427949,-0.27932850018208816,-0.2493421886465735,-0.06299070027166383,-0.40717149576690576,-0.17891718564116474,-0.2037847106246006,-0.21386937996418381,-0.4213070044891779,0.006453347511335703,-0.21003421862336843,-0.2133767830119832,-0.39216593540479855,-0.17604182018322803,-0.26493763602659554,-0.06659201324865573,-0.32600628988937286,-0.2698512388507105,1.255775545071621,-1.2959391729238066],"dimension":20},{"bias":-0.14269489336725794,"weights":[-0.3848747595320347,-0.21553115442312273,-0.22953341175284947,-0.16819831380402628,-0.375783936263707,-0.2411319349173161,-0.2388515122263757,-0.10431484718067548,-0.41937204915273973,-5.68955732007118E-4,-0.2498161469203984,-0.10604055548708542,-0.35983986426721853,-0.23874780711028717,-0.24072099566222516,-0.17579859661310132,-0.3787174794950902,-0.2087869886577794,1.323239868730246,-1.3588829663550959],"dimension":20},{"bias":-0.09955368919590223,"weights":[-0.3996251622734838,-0.2478283728304962,-0.24918878460380914,-4.212955168789981E-4,-0.43537261020909135,-0.20103785369788477,-0.1633689997154693,-0.25706435870332794,-0.44822182660843835,0.11474424197971352,-0.17202967507143324,-0.253091068729962,-0.41631804412081375,-0.19853082585242374,-0.2459700112129452,8.997103588176887E-5,-0.38459886992839293,-0.23339289483292647,1.5372154716837734,-1.5442782555639656],"dimension":20},{"bias":-0.10364769989764624,"weights":[-0.40715133606018006,-0.25351242841303256,-0.22170678269266478,-0.09128783174319272,-0.46275110544582043,-0.19522263837763656,-0.17707331986594532,-0.17238813270920228,-0.42733876175810276,0.15356667354892609,-0.18745705439085328,-0.17582444012202456,-0.45896077517224865,-0.1933688563453082,-0.21401932756184489,-0.08469358488212786,-0.4203306904499006,-0.255054755777177,1.6662399531092005,-1.6735245585532623],"dimension":20},{"bias":-1.5900599201837886,"weights":[0.2196206754289267,1.143644643407192,-0.18424353895091483,0.2572945064981003,0.44478157730116924,0.6719052815062806,-0.034614194855389406,-0.17233279072845994,-0.25222313560653853,0.1491818656126182,-0.07184075138326416,-0.19964467765296987,0.5149955794943128,0.6722989753059254,-0.16354488641085319,0.2960245395023993,0.19804344434118998,1.2067778453605904,1.8020699077856943,-3.282296967921901],"dimension":20},{"bias":-0.11531350178753572,"weights":[-0.11274453823581658,-0.6146852838067806,-0.029269742832240292,-0.27360825993897414,-0.6358534562552037,0.09915690381586954,-0.08267694942562706,0.4466768371324759,-0.3597411122827735,0.17708586806065837,-0.07621958372452797,0.45437333419448117,-0.6255698973703253,0.10710329465118264,-0.02667503188496139,-0.27640979341462135,-0.12556664359264666,-0.6167172492474133,1.5454805645725178,-1.55012795355666],"dimension":20},{"bias":0.09297997420488588,"weights":[-0.09925422609195396,-0.5192765514681288,-0.20736904812732038,0.611420083887127,-0.501823868150444,0.019163621564815398,0.21051989676016458,-0.4295111935073266,-0.5978622770331402,0.3582865088561535,0.2218822797602888,-0.42546889425496576,-0.49884012311637227,0.02291622454910053,-0.19097481964558455,0.6197256507188214,-0.11682411599587267,-0.5297193400888535,1.6102971870718599,-1.4192098840801577],"dimension":20},{"bias":-0.9789473878661675,"weights":[-0.46730087278104193,0.7901052034601966,0.6764646349614342,-0.08255084469989814,-0.25438333151509945,0.5096741938454452,0.8710210332577617,-0.44665209384821614,-1.973118822999314,1.2579611398811108,0.8551473205465904,-0.4508519602625897,-0.1970722657044717,0.5078950216640237,0.6304409021280553,-0.07691768406695057,-0.42789399608592715,0.7513944026990333,2.1111769865740184,-2.9865669333269738],"dimension":20},{"bias":-0.10966555704270756,"weights":[-0.9346864416262433,0.36928832145528356,0.09586846529441746,0.09680590903614192,0.14066232028536274,-1.2043330737706734,0.12623182446665746,0.38165752835807676,-0.8640957666797315,0.4781244141573058,0.12814539887171977,0.38856176718955254,0.13541872574759156,-1.195536450939441,0.11870511163771116,0.10921716759623382,-0.909520252218179,0.363304921453093,1.7018091927532546,-1.7172673746618319],"dimension":20},{"bias":-0.16502450309523986,"weights":[-0.3407007857558788,-0.22372348479665555,-0.25039227291893956,-0.13520755205078738,-0.3616970202948872,-0.2217820923914466,-0.22541532069744283,-0.16434822334687102,-0.41690215615404513,-0.039407176510114716,-0.24070363775566528,-0.17705381937550577,-0.3442869694989559,-0.2141017356292233,-0.25239420911349275,-0.1381001531440113,-0.338913783702705,-0.22467926850288047,1.1331073858475547,-1.193860685141716],"dimension":20},{"bias":-0.20437681618004835,"weights":[-0.5415657306740224,0.09367161791356252,0.0766644148883808,-1.0237462348816748,-0.10324555505858245,-0.5562497625047476,-0.2685488491528599,1.2749447963721625,-0.3351083167966673,0.24590280339148105,-0.28109546196010876,1.2885392019146942,-0.0840062220215023,-0.5381048324972091,0.07972015406677209,-1.0185841676176492,-0.5506121450913671,0.08532366025286764,1.73071742703474,-1.8371890008754717],"dimension":20},{"bias":-0.2860914893795407,"weights":[0.0431668218306302,-0.8847199748169721,0.17600031625038096,-0.9632493944611089,-0.6498999549603336,0.30198551473696683,-0.2182962025772378,1.543642441666893,-0.3752309068331494,0.32198927363369806,-0.2067324155972939,1.5761611432832274,-0.5965820460082035,0.3326722120979975,0.19114346028841422,-0.9784874696882443,-0.01646143964858082,-0.9027764330177048,1.7741206098787148,-1.9599663650008265],"dimension":20},{"bias":0.48571940844180594,"weights":[-2.40060709081492,0.642629302669687,0.4778043789995125,0.24069703654751928,0.9105683282448286,-2.2192910914644783,0.7192601383502211,0.15872495926331687,-1.5332962420420864,1.549411217352273,0.6999758017258594,0.13440994779993873,0.9211069075725667,-2.2262935451194976,0.48743858997775846,0.2433809474393549,-2.355813847700263,0.6404661239925692,1.8339323456718386,-1.2434722916983139],"dimension":20},{"bias":-0.449617793103994,"weights":[0.6218304734124663,-1.9034983681906985,-0.3356613853496745,1.1475176973548908,-1.4190003137234566,0.9975912388511072,0.35022953157341136,-0.37120455312171685,-0.31349290341436453,0.564467709784052,0.3623968668730393,-0.4028216225133692,-1.4488334773000648,0.9919567056181562,-0.3628241791003788,1.15517785553457,0.6215184347707164,-1.9014277005358946,1.785283475705243,-2.118519442833018],"dimension":20},{"bias":-0.12143435136535834,"weights":[0.014525436244288696,-1.1896634514716142,-1.470955962972449,2.54252022843617,-0.3825652310281275,-0.9215330753882844,0.7120486706523897,-1.565247557501339,-1.3280282755427197,0.5765249299969976,0.7489484379911541,-1.5480011884210896,-0.363393679420642,-0.9148134133712584,-1.467890423140932,2.5351525789554468,0.034002343525644955,-1.1983164183912969,1.7441408493583643,-1.7763399621982157],"dimension":20},{"bias":-0.13272486208747436,"weights":[-0.35782541269626766,-0.2458803863960466,-0.23155263474922386,-0.13397994521782733,-0.4173231226096092,-0.2038441654142627,-0.23338257615475658,-0.14854893810162745,-0.42732230115345926,0.035729323828423996,-0.21566285628346726,-0.14074774085162806,-0.4021151160262379,-0.20596157306421797,-0.24173801633474626,-0.1465863613264675,-0.38467316080418024,-0.26168410401524805,1.3777778861014642,-1.4077130496926196],"dimension":20},{"bias":-1.593623208019064,"weights":[0.21389430598017498,0.9180685787606557,-0.16373410407314337,0.6718001709003224,0.22415736565807062,0.9005776173623934,0.27420689861099296,-0.5636156639843598,-0.39102739429711697,0.2916191515201481,0.31584901660198333,-0.554795750315893,0.11520381543971842,0.8917486914895604,-0.19431624744895515,0.6118291225641695,0.2594167498332174,0.8874681099369411,1.8654865751205623,-3.336059608422191],"dimension":20},{"bias":-0.3280174259857684,"weights":[-0.930805149866267,0.43936878322029654,0.13723986405937416,-0.382625622107589,0.20181873859548488,-1.0846123751224908,-0.07582524703793053,0.8328131743152741,-0.7060541951620897,0.36786871821922945,-0.08963704509430094,0.8347748113286302,0.20490158220285465,-1.079969684064602,0.14475075476435315,-0.36976350330969593,-0.9194754415739582,0.43730393915832183,1.7298228972357625,-1.952724360304995],"dimension":20},{"bias":-1.4789978963503359,"weights":[-0.17597299837145372,0.4139503484968418,0.6687319738931198,0.4031449965411488,-0.4283786656425434,0.9599384309622125,0.7154264467872359,-0.21517613875080455,-1.121527602419629,0.6793945527555633,0.7187214787516971,-0.21592123610638095,-0.36581200685313037,0.9651129653891343,0.6553337797580915,0.3835007678054459,-0.2370880182181892,0.43262937961884385,2.0293245831627287,-3.397325158720712],"dimension":20},{"bias":-1.4933292704705727,"weights":[0.19529173639739994,0.7783088219082573,0.6703622287863854,-1.0105748227467841,0.12376052683904427,1.4558459776356956,-0.498816961270319,0.9723841722640375,0.1507232377139333,0.005370563660021628,-0.5055661933935358,0.9531265186792655,0.15552306148591802,1.4494316891558034,0.6728317708045293,-1.026221787217556,0.16607748616790358,0.7929269655145573,1.8205155300974127,-3.2237155138683784],"dimension":20},{"bias":-0.1462124253020432,"weights":[-0.34869728004401723,-0.24145332254653393,-0.24655134939175,-0.0962773974100396,-0.36583868962542154,-0.2235177991341602,-0.2192988078539308,-0.1811221463019626,-0.42270829137696675,-0.024671273086672968,-0.2189809367639745,-0.17102270471698397,-0.36294206730770256,-0.2268228121652639,-0.2545955695196999,-0.09691159903178669,-0.3444636588527726,-0.23070121929704068,1.2111220897901747,-1.2602565176201626],"dimension":20},{"bias":-0.6450847605041572,"weights":[-0.3271077948013047,0.3286031064974215,-0.05870901201650549,-1.6184001087333844,0.13866465087298468,-0.4273991435984014,-0.5051867040680199,2.118896819284142,0.007144054334109654,0.1175576628261998,-0.4926639572887686,2.146641793137155,0.1678782479004681,-0.40678742967249015,-0.030727355984251345,-1.6063799291477938,-0.35477566631688434,0.28360742912757514,1.748644728138154,-2.279716537828615],"dimension":20},{"bias":-0.35563903718494827,"weights":[-1.1982364659937712,1.054092228657865,-0.30733520634332245,0.889641213960709,0.6616405068518988,-1.9459040487501498,0.17925206818458997,-0.23681987241247307,-0.5706985918226776,0.6770957554031107,0.18119835440033,-0.25267346026124865,0.665809675455638,-1.9558717018595249,-0.3145394387072048,0.8798077568062256,-1.1993043060017572,1.064451166701502,1.7727436839659803,-2.0373481925500525],"dimension":20},{"bias":-0.4118159400438614,"weights":[0.02199928882564923,1.0142634697502362,0.3890634863451224,-0.4870968270467705,0.08332815311106331,0.9597564332032443,1.111797496021071,-0.8427340905150793,-2.5302013100460625,1.8489232893278373,1.1102488854909855,-0.8458819286794895,0.043058194667563915,0.9620144319292866,0.4207630683062182,-0.4861951589932604,0.009591379465072096,0.999529545407382,2.1078455071256923,-2.425653925614395],"dimension":20},{"bias":-0.7923658481794642,"weights":[-0.23367331134578387,0.035366188203003836,-1.26118833706947,2.3357476891907396,0.37517179343220164,-0.9125083905434128,0.4069999724459324,-1.4635671482370558,-0.7979021629049793,0.3186018816042147,0.420719979843388,-1.4538245161250958,0.34593578396566854,-0.9128463187190521,-1.2596227652487864,2.3258719273227357,-0.23440675441008654,0.03602237727172433,1.8301662710945914,-2.5112896979528205],"dimension":20},{"bias":0.3442178821227364,"weights":[0.8465406127169736,-2.1640917019290087,0.6849667405730812,0.008932306680638718,-2.6183691225075365,0.7159732181667505,0.5724858392588196,0.29300059168887793,-1.224065722433774,1.519114293077103,0.5836585996759183,0.3421240183659375,-2.5998842119431624,0.739553584027473,0.6411676524953994,-0.010670274985782715,0.8017005955213783,-2.1740938157714877,1.9705736981772728,-1.5165583001625649],"dimension":20},{"bias":-0.11335448751498077,"weights":[-0.34512860132678974,-0.28407687020055716,-0.25300301716450024,-0.06791033786799222,-0.4363823955207699,-0.17443744549899376,-0.19898988964378703,-0.20447571651275467,-0.4344293273885296,0.06160119462187241,-0.19608416747281573,-0.20144623694921737,-0.44004273130234245,-0.18123261424807385,-0.2513880736544182,-0.06896658178906506,-0.35406196907852283,-0.2885881039266273,1.4473803299452086,-1.4455496342132574],"dimension":20},{"bias":-0.1038441285742274,"weights":[0.10444679227749547,-1.287085063782815,-0.07617621435252904,0.6071946690134602,-1.0087722627575137,0.37021052214611744,0.3769646766927209,-0.05253361135410779,-0.7879452751317375,0.39709248460752045,0.37902560949258945,-0.056404729243079155,-1.0169289111668716,0.37177308106607976,-0.085701391230487,0.600856362840994,0.09619850915613239,-1.2940352895261922,1.660855085868837,-1.6593016493340231],"dimension":20}],"perceptronAmount":30,"inputVectorDimension":20},{"perceptrons":[{"bias":-3.0399665105189304,"weights":[0.4595676316714017,0.17823075862603843,0.1804637620918635,0.18469981759562037,0.24124482229684854,0.2606427878537829,0.46095881545177136,0.24344373898108165,0.3086418559593296,0.425484529228979,0.3752751853788666,0.1522755847094778,0.396882435860603,0.44534353206654387,0.7635383991627062,0.6375565552748114,0.9576578905646346,0.2055347951643746,0.5117697470061796,0.39244597991226127,0.43889277206665966,0.5551452094736746,0.16446881360820026,0.618953177700022,0.6159035438754189,0.4570370065290511,0.8481186228561448,0.7773079854778399,0.21156179449512424,0.4002502383893925],"dimension":30},{"bias":-2.9605290164709235,"weights":[0.4353549928453757,0.17870456924408773,0.17087347018077378,0.18738751805476533,0.23157030573143458,0.2606552002228407,0.44144017592204976,0.24880240467222792,0.2992090873807047,0.3840428888795982,0.3616012204737819,0.14235511896739259,0.3967541695039285,0.42842655271128544,0.7428837475462684,0.62286825965692,0.9379116778318608,0.20164997000279375,0.47059521687760225,0.37977967432246407,0.4037216503797073,0.512483579062039,0.16749199320836233,0.5954398484333187,0.6018282914476821,0.43717033970630736,0.8183959654537329,0.7514589139181815,0.21346339066488706,0.39734539003073516],"dimension":30},{"bias":-0.9985657727758052,"weights":[0.5736862849647547,0.17704688348001243,0.17552999273096043,0.18802354768650142,0.2146598882020887,0.2289906058307768,0.3551508739009242,0.23284968940194678,0.18304130870431543,0.7212900850370424,0.24253373988699053,0.1613211493007913,0.2039444796022864,0.25463389119077184,0.23003109317764717,0.19196651708593848,-0.13683747533319487,0.1850679168791979,0.3564020641643487,0.24743045982574965,0.6146609559495048,0.3995669233980266,0.16380294887353603,0.1356724987960298,0.1865988478705366,0.7242590268638337,-0.01859773319951376,0.3391349714343489,0.19781585746705896,0.21579227085747782],"dimension":30},{"bias":-3.434170218214845,"weights":[0.5534133637052727,0.17342686151669565,0.18172466604844847,0.18750582259742146,0.2567915173784316,0.28220221697128856,0.5780373163179968,0.25559311610185864,0.3343347520790211,0.457564986505031,0.4037514318074755,0.13901264211029452,0.45533584191063653,0.5090065655701097,0.900195721074212,0.7604380271297552,1.1786431887234035,0.2106336419792875,0.6270076988321517,0.44319614370373733,0.5159680412405337,0.6763114516637908,0.17003814041161258,0.7415499218252627,0.7407990808618489,0.5097869611132182,1.0312926480270965,0.9290764638798765,0.22390849175806138,0.45061752024197765],"dimension":30},{"bias":-2.5925120714168073,"weights":[0.40378357485030264,0.17119729811174353,0.16553045462067748,0.17790127511878506,0.22105050126377435,0.24495158383583815,0.35393621276528664,0.23083617266814713,0.27425812824454465,0.3994139849607113,0.30728410534043205,0.14118993503223815,0.33358593708085055,0.35459558577034656,0.5899885102654765,0.4876251006105972,0.6469624161618929,0.19569561589320536,0.3849492044198736,0.33216077470569083,0.40852071070254825,0.4355776874877851,0.16230404201684034,0.4621244184108953,0.4673345806831014,0.4246069347258843,0.5845900653501477,0.6083415162620167,0.20674017632753142,0.3270065580352594],"dimension":30},{"bias":-3.791542165684656,"weights":[0.7422290502784127,0.17368459421896534,0.17997895172707185,0.18749618833842338,0.2523213964676518,0.2854547220289407,0.705045641655524,0.26998948003895884,0.3376539982996121,0.6022735439273255,0.41451746253937327,0.14149103117523137,0.46790669045041283,0.5286456702628207,1.0042993851318132,0.8557568146043075,1.262250959093098,0.20528390660422782,0.75896258508052,0.46573686013623466,0.6805166039765405,0.830514453772896,0.1567782673443448,0.7938238898810616,0.804044059109362,0.6462351507232877,1.094857916949561,1.0554897235552219,0.22993199677036735,0.4678854854826515],"dimension":30},{"bias":-3.66387500862135,"weights":[0.6512692409086901,0.17907850898429253,0.17830625630359606,0.18343799748968193,0.2593704034755687,0.28590775337639085,0.6629379792279793,0.2698539179585851,0.33749337102357485,0.5239685984819162,0.4108531565583622,0.1348052628192655,0.46711335665799375,0.5139813236586712,0.96588788552719,0.8323797615780749,1.2498176457183765,0.207113453913921,0.7137959454232689,0.4542565404892464,0.6003525090501046,0.7798006185880625,0.1683136260735494,0.7821380445966452,0.7907877427649977,0.5888651496051808,1.0889384127921438,1.0062519535998662,0.2231638553028982,0.4609219301030567],"dimension":30},{"bias":-3.3356501934063267,"weights":[0.53315611741718,0.18252934022626413,0.17800302197798307,0.18265580885279578,0.2470449995987146,0.26936974200888103,0.554358803228053,0.25230886086990856,0.32577849295864325,0.4486168400463763,0.4024849142139695,0.1410256224908089,0.4346068708047644,0.48407405474382337,0.8662475983600415,0.7416460013128073,1.135701632079712,0.19958146654711828,0.6018376441895275,0.42533425774823813,0.49493773686274756,0.63824945000737,0.16215561735410053,0.7207493739487728,0.7036317243427415,0.49778649595983687,0.9809239086895094,0.8890498138355926,0.2219752423800997,0.4497996999806648],"dimension":30},{"bias":-3.4121772522280427,"weights":[0.5495527358415994,0.18291590275090042,0.18063196069755397,0.1835154206576219,0.24182256698960145,0.2792895445239076,0.5657275544405267,0.2512640596544428,0.3309162048547569,0.45289710384423637,0.4084587001969989,0.13812263523484047,0.4506603878926988,0.5009862441506329,0.9010175794044369,0.7597937145744791,1.1751471589428721,0.20189540543168027,0.6144723828760597,0.44050471816077236,0.504619698882555,0.6615538037302042,0.16003617700275666,0.7435214685825554,0.7267336552212058,0.5067219663372612,1.0225664668781185,0.905945852549915,0.2147654562397948,0.45968262142261046],"dimension":30},{"bias":-3.3439310863779435,"weights":[0.5241875968133249,0.17879967330650817,0.17639579734938643,0.1901505939113154,0.24717741565521487,0.27496431649299724,0.5479209239153517,0.25995498998067906,0.3324027915308536,0.44039849994540453,0.39932836302534874,0.1372070784402406,0.44576614460983527,0.4946654670380677,0.8777447301431239,0.7464200702790674,1.1398048304744015,0.19895995673164366,0.5905378886383111,0.42896666801992217,0.4779302752228367,0.6412352498891193,0.17277855390163865,0.7181894176467458,0.7136089965963093,0.4924246922760802,0.996765441249549,0.8943947954977715,0.22023309164335586,0.445376393846199],"dimension":30},{"bias":-2.4375701793045965,"weights":[0.3970547178710735,0.16641436715727123,0.16277289379899584,0.17587605572675255,0.215715922633809,0.2427499456182595,0.3293250617697388,0.23107967922424702,0.25356252416543035,0.40862123235403547,0.29892383103875575,0.14488379806016088,0.2990111918672525,0.3286147979415236,0.5188462641104126,0.4425271834606637,0.5450592523744737,0.1932618496862762,0.35144124947742106,0.30093599112123737,0.3977781041715083,0.40484268297222975,0.15787438674431786,0.40941869000701564,0.42439503524475775,0.42847911260635674,0.5003734558040811,0.559077415337326,0.20500722255240458,0.29891760006771906],"dimension":30},{"bias":-1.5786417810517512,"weights":[0.4962525631565824,0.1759911348757458,0.16474202135774907,0.17716550186197622,0.21409397836318586,0.2282276498920436,0.297762578135157,0.2225808862379199,0.19720181204330106,0.6112526655794844,0.23171067534912648,0.14572795441087988,0.20847816932699145,0.2460365598448655,0.31670966515742327,0.2467825794251489,0.050221335649847036,0.1881968847432413,0.3108174258501315,0.244890550924368,0.5317893868855503,0.3719958870814076,0.16282446319549268,0.18782453125843535,0.25252903485085093,0.6093821196905097,0.10725286814642049,0.414363754258715,0.19438995747229273,0.22831805658412618],"dimension":30},{"bias":-3.2644737637720267,"weights":[0.4892182768723401,0.17369415268163646,0.17570426601241595,0.19095285385252506,0.24122486580738603,0.26506981270430996,0.5291964057607408,0.2495967752991786,0.33294132203723686,0.40918253772920665,0.3957782944019375,0.13930268474498342,0.43340671876438686,0.47866023780878336,0.8521833350863575,0.7172704820905359,1.1226207458009136,0.20838476186197422,0.5742170538948118,0.4296390772390544,0.4497755548693899,0.6063888856547844,0.16960233257978025,0.7067203248403281,0.6822368782684631,0.47282738565977367,0.9659290795611452,0.8659293592379145,0.22400464698044106,0.4458116501399612],"dimension":30},{"bias":-4.006832125225424,"weights":[0.8681389385386072,0.17688185260093614,0.17054812679717393,0.19529703610474594,0.263508632133384,0.2948100674769101,0.7721500342251147,0.27377348986612093,0.35016756143645433,0.7120188583061864,0.4202331524473844,0.14422510206123115,0.4776474746816451,0.5322483290227947,1.0805330424788853,0.9077039865566047,1.2727591602229793,0.20893264685751844,0.8272590969969963,0.466685265802731,0.7967253288401875,0.9290324949738198,0.16179272068409653,0.8161616107755889,0.8517111067837773,0.760960080950056,1.1020362231000806,1.146470509883023,0.23315219337613335,0.4755662046044932],"dimension":30},{"bias":-2.958918753966696,"weights":[0.4211791395694934,0.17884368212674123,0.16778566199318756,0.18788907710562786,0.23719273681790068,0.2546789472266829,0.4399099648963704,0.2526702913557073,0.30829473091909865,0.3926374919012883,0.37032165988567817,0.15110592812267862,0.3926231410053626,0.4277824158288503,0.7342042946852417,0.6122224602470699,0.9266567441261284,0.19352063613840031,0.48197321258867676,0.3883617753060438,0.40452133602449114,0.5184056011963816,0.16640535953449345,0.6028566616292156,0.5927663058172564,0.43419194898422586,0.8122587296252228,0.7382626076693157,0.20866307316243396,0.40321603366096204],"dimension":30},{"bias":-3.5321568461748365,"weights":[0.6074762550346184,0.18400516367540795,0.183782127096835,0.19354421090521443,0.24749965318747452,0.2809468148467382,0.6098924957873323,0.2672224189071581,0.33065601525317023,0.4966139213956783,0.41490639731198053,0.13584111530508974,0.4513696411537035,0.5132180522247306,0.9286711024618224,0.7885143893269722,1.200554654355015,0.20291006303760153,0.6657682288914532,0.44418128447604766,0.5634970558842699,0.7265406646204898,0.16294034220653092,0.7552927278903492,0.7504465095238482,0.5499678577507051,1.0499947114740136,0.9613187773737885,0.21865943217669806,0.45996158002694204],"dimension":30},{"bias":-3.5605809831107265,"weights":[0.6197104784062425,0.1748209923636691,0.17847764164488236,0.1968321925808623,0.2573645522233491,0.2776048625495664,0.6261749379732489,0.2567063442936868,0.3303366567051173,0.4956622374043114,0.4080707487062955,0.13645860744106217,0.45926894127014045,0.5062706754775202,0.9347028777182351,0.80583166783103,1.2167713961963198,0.206533359290399,0.6715556925580138,0.45146615338112733,0.558989871969003,0.7352574448996301,0.16175523080635773,0.7635702510664848,0.7594606076238566,0.5625736460787789,1.0594601275735116,0.9718997045662409,0.23204801195862168,0.45822052298051424],"dimension":30},{"bias":-4.336217629962646,"weights":[1.0680846083154003,0.18414145202857043,0.17531349928851522,0.19012671464522274,0.2730434449517969,0.32868426544267093,0.8634001710446297,0.2875782988506791,0.3575277574797016,0.9033426753381019,0.42778242165078184,0.14116268850051417,0.48203511394305665,0.5516864059793641,1.1914178477782653,0.9851471992918529,1.2836584838868605,0.2230907652057278,0.9322608618308256,0.4842362003067872,1.0021784509821297,1.0830788292256457,0.16491867652185235,0.8349593189220667,0.9073526056409369,0.9427977493722414,1.1061478463245427,1.317624254643382,0.24305270425029252,0.48159148888668957],"dimension":30},{"bias":-3.4610426892397586,"weights":[0.5554438348490524,0.17387424323736364,0.18096224388626525,0.19112728745191074,0.24801654222202452,0.280100028520543,0.5931990089499791,0.2555578657152127,0.3396115476346425,0.4620795070408395,0.4134009278603966,0.13903314108547127,0.44544736484593805,0.5050532919285886,0.911382124798931,0.7672677418141611,1.1922668739569635,0.20867137456180157,0.6318334984253489,0.4478482343110717,0.5136621831883295,0.6845306491342911,0.16742117476857438,0.7587155042489115,0.7443643715040935,0.5119465204998295,1.0404332575438233,0.9317923938467949,0.22039271163861984,0.46321311079583816],"dimension":30},{"bias":-3.376153855326606,"weights":[0.5263533650610486,0.1724650157635876,0.17057902505677383,0.19182413721960004,0.2518915401353822,0.275716824242369,0.5638446633937769,0.25275384264124406,0.32131296261909,0.44175811537887244,0.40041080921337735,0.1409765402509462,0.45109469033067595,0.5001024587988221,0.888535892112496,0.7521411490909933,1.1654404241613479,0.20017298541777048,0.601930416823937,0.43305627169444444,0.4914921385562066,0.6592439391090658,0.15976361345909662,0.7339869778389837,0.7224686203822239,0.49403683124510045,1.0174674407456186,0.8968614648342382,0.21602960809871025,0.4431457438187867],"dimension":30},{"bias":-3.3511447275807185,"weights":[0.5412548787254592,0.17554517616041984,0.16997369131046028,0.18564102316535627,0.24371446379878794,0.27287178137513046,0.5600204011421919,0.25898281220624836,0.3285828974044336,0.4561559765036936,0.3936909252017901,0.13951799804283951,0.44460924241312333,0.4878788520372347,0.8719606150850567,0.7334149028867594,1.1377899761253338,0.19659651800404407,0.5989042067051858,0.43635316960087595,0.4936699501137166,0.6467378805021352,0.16314829391231164,0.7129413349409203,0.7084481592973786,0.5069059578590004,0.9922040119531611,0.8838841717474506,0.22397502138937928,0.4530042405138168],"dimension":30},{"bias":-3.9033219053698396,"weights":[0.7867554202172187,0.1737372591725722,0.17631800539499026,0.19108676508539904,0.26604530403670756,0.2998743626300875,0.7326489036517957,0.2647045526518239,0.34106629069639366,0.64354574583967,0.41620718007634167,0.140341084883179,0.47473357402330923,0.5323796040298443,1.0467130551767088,0.8815853024826853,1.2878471558366176,0.20530588328489835,0.7975020840750574,0.4689591124763318,0.7232495585609428,0.8807300419301219,0.15679942653917564,0.8157098750409806,0.8259935076106509,0.6862264504960707,1.1138534795828252,1.0938979353242082,0.2301740178355681,0.48146889886990857],"dimension":30},{"bias":-3.314557536949429,"weights":[0.5278033403359155,0.1729713217152966,0.16895340921281768,0.1893353943312388,0.24456980424733873,0.2647926369625935,0.5492682962127878,0.25712846745530504,0.32522985422275796,0.44289490639537193,0.39789515082286214,0.14401879582096286,0.43220464628081695,0.48897190264431833,0.8659157194329704,0.7238740098882682,1.1272431439777584,0.19837479531617425,0.5925810795910984,0.4209922295987723,0.48090500777168693,0.6424462129044521,0.16603040172064953,0.7060917125152599,0.7024112223989653,0.49311061223820657,0.9806010023869909,0.8739817674833367,0.2208293271300922,0.43999209450244586],"dimension":30},{"bias":-3.313708410813214,"weights":[0.531662175218559,0.17527741174100714,0.17400089747575492,0.1828068225111101,0.24340194528518264,0.2701204120158029,0.5486281099248587,0.26379927622140564,0.32151733720584597,0.4531566366958581,0.4009626516134815,0.14261620571646702,0.43019967194457104,0.4765660121950443,0.8587833564989619,0.7200022741701686,1.1174418201648089,0.19594808264222036,0.5936261922141555,0.4233093778734216,0.48165730758875713,0.6416265941596596,0.16028480046237825,0.7132663879113068,0.6952049925230415,0.501193483380362,0.9738272858014945,0.8765475631560808,0.2154649706154178,0.44533334747032827],"dimension":30}],"perceptronAmount":24,"inputVectorDimension":30},{"perceptrons":[{"bias":-5.775277988678149,"weights":[0.49310058687413894,0.468661346024297,-0.5400537867297939,0.6654650502023253,0.2695335418564017,0.706644692040135,0.7051959555402039,0.6165852851700212,0.6536435926381597,0.6310447489785751,0.17544524843551015,-0.2898004871099914,0.6231094915020663,0.7046592645321234,0.46697672650890426,0.6721400267022162,0.6832577873693595,0.6995253178913127,0.6691678073020886,0.6439650024106399,0.632046257585165,0.7270689599803738,0.6247979404594989,0.6062572521514228],"dimension":24},{"bias":-5.8872260611284455,"weights":[0.5035338981410997,0.48145015225384014,-0.5653247561599843,0.6791458427251484,0.26238841279934616,0.7147166373947037,0.7274453107047388,0.6436643469452206,0.6736541343619021,0.6409860249507001,0.18411229227310164,-0.3047156842246677,0.6234649665384512,0.7086429451642179,0.48503730454950855,0.6830973190762744,0.6982123546634575,0.6923893808301951,0.6858660980118526,0.6658113163337464,0.6389599182161638,0.7346346604340092,0.6263873007057734,0.6264011778550855],"dimension":24},{"bias":-3.6058097448524706,"weights":[0.49249704114664894,0.461161290019347,0.12425276012269125,0.6454809726763158,0.35684281157281517,0.8126512194368941,0.7531081639210746,0.6059781150145598,0.6270534974966925,0.6102910791505975,0.32848280547787456,0.1994374407873725,0.5603639836640453,0.9140250295824831,0.4522372578663621,0.695223777076633,0.7062703576810812,1.1006749222631473,0.6544324243011859,0.6143976147023252,0.6132047216779213,0.8635118404732053,0.5911496414637857,0.5967904571623316],"dimension":24},{"bias":-4.93829317029612,"weights":[0.5574752430160999,0.5214874872742081,0.012466946759114285,0.7360857150407075,0.3777964018753248,0.9626994448616835,0.8752579253027943,0.6920660576875897,0.72623664183141,0.6853726198773527,0.315109908161835,0.1414800040586755,0.6442319992127854,1.0834158677870809,0.5145216116667052,0.8074179775358726,0.8166128619990696,1.307761623076413,0.7461454761177407,0.7043078286344016,0.7009835871041805,1.0145387176926959,0.6870965423852552,0.6784905286509789],"dimension":24},{"bias":-5.0796637611644275,"weights":[0.39569644719169617,0.36708143007271454,-0.28449419491794914,0.5585811337015381,0.21023780885697887,0.6848737228327291,0.6379163945128975,0.5251026417693692,0.5465458953850555,0.524732917995383,0.14962780564822922,-0.12487256805979324,0.4825295948749055,0.7670558200768195,0.36903133538432686,0.5945690052723303,0.6112889810279365,0.8656302986866053,0.5768549125088103,0.5279178822664494,0.5297721505445241,0.7237404385820017,0.5094274412167175,0.4994701201416875],"dimension":24},{"bias":-4.240175977253293,"weights":[0.5065172835380768,0.4670141886980614,0.03399065986246531,0.6719982492757534,0.3391674147453145,0.852959470373333,0.7766878541595164,0.6327567244702268,0.667510390512366,0.6221859456475802,0.30085149302873837,0.14642679753959945,0.5873133648522862,0.9840160890682411,0.46349537798379264,0.7235229098654767,0.7280718255653682,1.172267154200561,0.6752838171691558,0.6399174757035276,0.6382712412958738,0.9226767081929295,0.612851163961689,0.6100045385931385],"dimension":24},{"bias":-4.298768264793229,"weights":[0.5303356463345112,0.4803007365784066,0.03604688314044178,0.6993411678906726,0.35920653153124277,0.8902558647341478,0.8172234000226685,0.6482865748296476,0.6773601238656696,0.6502805712111754,0.30792049816636635,0.15035850847243623,0.6072490441749966,1.0198033799413226,0.48294411078008664,0.7487261944502873,0.7597560401510001,1.2108283999595413,0.6969709305814707,0.6553404205961156,0.6562419179487545,0.9552976604719278,0.640381608216434,0.645706538167166],"dimension":24},{"bias":-4.712249966959268,"weights":[0.5390199257214143,0.4885258846961398,0.007914760985169767,0.7064130444904501,0.36129604129494064,0.9118643514800546,0.8345211116357517,0.6553887265680864,0.6923107113045517,0.6676508361058443,0.31034096054394233,0.14607566153633228,0.6282674679006309,1.047962284131898,0.4799238616978404,0.7664709846011855,0.7863948832714901,1.2538851513399794,0.7139948906929618,0.6808264458542626,0.6628771616635614,0.9779099344270168,0.6525787987351745,0.6588143306523939],"dimension":24},{"bias":-6.1030837104321805,"weights":[0.544471589168901,0.5156944769591676,-0.6022118322746075,0.7007490108718629,0.2826816559110197,0.71900807392892,0.7380798699990224,0.6604189498830831,0.7003557110225443,0.6846103037153948,0.18490013408956604,-0.3322223587781509,0.6604847790556923,0.7077505674487312,0.5159661536414665,0.7043925807146465,0.7284073969697009,0.6619286541493516,0.7235361934172001,0.7009774008707751,0.6674678640435104,0.739105782555526,0.6592556340395184,0.6598012078856408],"dimension":24},{"bias":-5.284674546483931,"weights":[0.4147539192394495,0.39584982871196567,-0.3863330060652588,0.5902164039250285,0.21224052702903493,0.6991720337835804,0.6693224956414393,0.5454362863879182,0.5799019095739759,0.5594484209512184,0.14841561662505465,-0.19768755279130443,0.5164138648640696,0.7475572658073694,0.39807375702046827,0.6123484382207238,0.6204075031765395,0.8112188242286762,0.5980487152064372,0.5666401180298061,0.5438828906125293,0.7212727562798418,0.5458717355411321,0.5296482472520143],"dimension":24},{"bias":-4.238660131148704,"weights":[0.46539204577169174,0.420400624483056,0.015362058353303065,0.6189966924991712,0.30474400302997323,0.7931416557227987,0.7256870676893483,0.5853107886403831,0.5986609074597345,0.5692360047254891,0.2635500947389376,0.1180579380743159,0.5472619877596362,0.891459606828561,0.42377637757752223,0.6655718683607157,0.6792146329798158,1.0714425409850608,0.6342242281643855,0.5917774384372871,0.5859611354036769,0.8362283448627352,0.5584918481923531,0.568548466000107],"dimension":24},{"bias":-5.574905252814903,"weights":[0.4647980758209945,0.45684539197734103,-0.5007683830763041,0.6355203557183419,0.24563487544341617,0.7014438986589685,0.6777500232901523,0.5959261157919196,0.6299380047301706,0.5960613214062276,0.16979354058017143,-0.26681657484697685,0.5877860612279071,0.715935503962605,0.44598060480798507,0.6422750377996177,0.6529703291933974,0.7268996194139793,0.6477569409500802,0.6292914105929605,0.5942320677415027,0.721282742221174,0.5837863822615652,0.5779339509986755],"dimension":24},{"bias":-5.001324545230411,"weights":[0.5597269707704663,0.5172970324572368,-0.004457902900743815,0.7606683100622196,0.38104853932432414,0.9604984602569531,0.892630256206317,0.7083498809163915,0.7395911700587275,0.7059748377453442,0.3319120481002013,0.14897627533282606,0.6626406482907974,1.115699193537509,0.5141280338338589,0.8026047130110093,0.83443568169539,1.3317243035878275,0.7653443155246067,0.7211520100466564,0.709400450822013,1.0333524266889582,0.6923276555681164,0.7000449978346428],"dimension":24},{"bias":-4.82840395146596,"weights":[0.5014459477770208,0.4615627694471462,-0.002293852171369004,0.6740115308341952,0.3412065999363618,0.8850252826403056,0.7987555783463104,0.6420971262293245,0.6663953169058519,0.6463068123752145,0.2811011434087349,0.11583174922342249,0.6071446657989766,0.9965739864010956,0.46260519882913614,0.7429481639768045,0.7465424208983086,1.2023352221850048,0.7022103093172801,0.6584435366203892,0.6477389694376773,0.9373342844468127,0.6308262014028111,0.627390795564939],"dimension":24},{"bias":-5.482969841335157,"weights":[0.4577701813383813,0.43854498952353227,-0.4750354843716405,0.6209019870322091,0.23140621109067555,0.6908760798883826,0.6744663822649908,0.5821920697842711,0.61691674741474,0.5960372728309148,0.15333006617806974,-0.23957441082046477,0.5751470645546253,0.7162726390726378,0.434437982015319,0.6445162861327968,0.64309106067841,0.7343946199127117,0.6234454505553408,0.5991794362509579,0.5845718503070191,0.7131312734172747,0.5703439865681061,0.5743595819098318],"dimension":24},{"bias":-5.90301384882162,"weights":[0.5082394066071116,0.5050186323984345,-0.5664954025170756,0.6722002673547266,0.26897428210267793,0.7125979089362411,0.7231342158081249,0.6371507673579608,0.6711200539658847,0.654983972300638,0.1787958145242207,-0.3086831757161226,0.643193058027149,0.7042755528011297,0.4978505917114873,0.697016524149442,0.6964760451958842,0.6699453039041743,0.6951613489184703,0.6625346985519919,0.6415087747165336,0.7293442015623474,0.6274879190015625,0.6220819923102158],"dimension":24},{"bias":-4.603119264927541,"weights":[0.5507676886718138,0.5014660363041292,0.016333203234261576,0.7264711225228078,0.368405075175423,0.9299468911764736,0.8491589148613962,0.6759748899514961,0.7206056651820374,0.6819806696010676,0.3131647687002025,0.141080607498712,0.6331314224611678,1.0691863105704629,0.4915939445172803,0.7830226870805573,0.7854632510851007,1.2755106855049219,0.7359246196229168,0.6980325049261035,0.6925426920650994,0.9919639792193294,0.6736373935026124,0.6742066712015393],"dimension":24},{"bias":-4.945732287050998,"weights":[0.5047083628169182,0.4718148881384598,-0.0026357300750173814,0.6884404710375388,0.3343320009023662,0.8845532523917689,0.8026151955838379,0.6395111155268588,0.6817532020598616,0.6446973670736611,0.294030400317939,0.11977742296479786,0.5979908295222658,1.019745311422421,0.47057285226715323,0.7402690615073417,0.7621465951678013,1.2066035253392062,0.6985338509231107,0.6614716152065884,0.6399394786778839,0.9407753221922281,0.6359902460586642,0.6374407256176401],"dimension":24}],"perceptronAmount":18,"inputVectorDimension":24},{"perceptrons":[{"bias":-8.341214818246304,"weights":[1.5730307619211612,1.6215530452756892,0.29661307825750893,1.4061123992248687,1.5246148618013817,0.8529711833383948,0.8513129225177254,1.2312970318268175,1.646578845981975,1.5607493092506417,0.9432754363143906,1.532204974071686,1.4491926954591952,1.4112340398208614,1.5104987137326864,1.5974718664518062,1.0914833864961515,1.5023288424121397],"dimension":18},{"bias":-8.499576004982892,"weights":[2.0830877977942346,2.178383543628755,-0.5638367150023819,-0.024338129219853264,1.177143696902872,-0.21597687482620528,-0.3077182485189994,-0.038191251471236615,2.3771750458527863,1.5126577690665235,0.0764606557406317,1.8968773786701547,-0.034089552197670965,0.2080952933973722,1.808806398903665,2.2103625004107306,-0.22384125521712675,0.290512373027984],"dimension":18},{"bias":-7.965107486134563,"weights":[1.6300514431817825,1.6564975715096313,0.6427968675809881,1.7147032001453117,1.599478862849214,1.174254862235381,1.190461554850819,1.5410497205886802,1.702751898561578,1.6336811250339707,1.2176622846411518,1.5932426826298296,1.740253173926628,1.6689481189661535,1.5672937011621513,1.6259141553402265,1.407132094562828,1.784761410191009],"dimension":18},{"bias":-8.514447856725186,"weights":[2.141096229474843,2.2451684359233286,-0.5960073343371641,-0.08466386122392015,1.152551616309144,-0.25535049149408734,-0.3369942452187564,-0.09920314750829291,2.4560089987869294,1.5320486574977212,-0.004644343152850925,1.9433557235694046,-0.07596439269908921,0.15429546547107093,1.8405540240601295,2.2764061986498625,-0.2692187672328194,0.2332609962184502],"dimension":18},{"bias":-7.573676645578251,"weights":[1.7225782998561379,1.7113751106342858,2.36528890432654,3.1196478486748815,2.0809477156591756,2.6358320105297084,2.7771732655389507,2.929288809196335,1.695634869371112,1.9173830461004462,2.3972135213727284,1.7380591981635831,3.2150311203856723,2.816540776627278,1.7562692503989128,1.6889461068911076,2.9997438420791895,2.87782134856992],"dimension":18},{"bias":-8.504761330328618,"weights":[2.131322651371809,2.247000138628205,-0.5959196186396167,-0.06611125374184573,1.1615295667753696,-0.26111247555175304,-0.34581911878176186,-0.10360712037110303,2.4534076498709716,1.5354812834305593,-0.003824344287369546,1.9408597729382924,-0.06736953529803479,0.14632586663340758,1.8428883967838978,2.265568138658826,-0.2642302279905142,0.21495276508759387],"dimension":18},{"bias":-7.93620047827539,"weights":[1.6363206015799632,1.647192462489092,0.6657440874784232,1.7176552159043306,1.6000757684432931,1.1924513604782414,1.1850020962192678,1.556910940884686,1.6929854267584028,1.6221281559207903,1.2379546790815785,1.5929427745587685,1.763344094195707,1.6957935803567,1.5632494332159157,1.6285799736371478,1.4149519176356014,1.782915880677873],"dimension":18},{"bias":-8.491016307258848,"weights":[2.1070675305794797,2.2021932559608945,-0.5567997823306208,-0.012131023390367241,1.1881883182674209,-0.20044633517620145,-0.30219492925155544,-0.024112379429047384,2.4069024394932876,1.533452378195748,0.06962039537314448,1.911330071564376,-0.025151429734917484,0.22166745983142777,1.8307477308982436,2.226250438088885,-0.21403991476600165,0.31055273568253733],"dimension":18},{"bias":-8.342334954096293,"weights":[1.5742553065331648,1.6227762826134071,0.2915027835973658,1.4018682913607916,1.5052258999537347,0.8442867716205745,0.842806134369363,1.2393368051494291,1.6603905362197613,1.5527857547730253,0.9428067662090446,1.5342904659219194,1.445875045907811,1.4095743934582776,1.5217561403469022,1.5886274598335655,1.0863923549540153,1.5175293437905384],"dimension":18}],"perceptronAmount":9,"inputVectorDimension":18}],"inputVectorDimension":20,"neurons":[30,24,18,9]}